{
    "params": {
        "method": "quantum",
        "quantum_backend": "IBM - Aer",
        "train_or_predict": "predict",
        "is_supervised": true,
        "training_steps": 2,
        "quantum_circuit_type": "StrongEntanglementIdentity",
        "quantum_depth": 3,
        "batch_size": 16,
        "discriminator_iterations": 5,
        "validation_interval": 1,
        "validation_samples": 100,
        "discriminator_training_rate": 0.02,
        "generator_training_rate": 0.02,
        "gradient_penalty_weight": 10.0,
        "shots": 100,
        "latent_dimensions": 4,
        "adv_loss_weight": 1,
        "con_loss_weight": 50,
        "enc_loss_weight": 1,
        "trained_model": {
            "auto_decoder_weights": [
                [
                    3.366288900375366, 3.094350814819336, 3.067819595336914,
                    4.358421802520752, 1.3209706544876099, 5.497937202453613,
                    4.130318641662598, 2.8098087310791016, 3.2260096073150635,
                    6.201791763305664, 3.3463923931121826, 3.648725748062134
                ],
                [
                    [
                        -0.20077817056325925, -0.044480401367010175, 0.3620291847522969,
                        -0.35241588848458066
                    ],
                    [
                        0.35495112344889207, 0.3364828628259072, 0.6181946526311748,
                        -0.34803370038622233
                    ],
                    [
                        0.8537293356396652, -0.4015986955014679, 0.5839294654408455,
                        0.5862864946582604
                    ],
                    [
                        0.8735563231606382, -0.7030951889209878, 0.3865022523782566,
                        0.8357131762679292
                    ]
                ],
                [
                    0.019998874805408202, 0.01999923362141616, 0.019999959428111374,
                    -0.019999965188127914
                ],
                [
                    [
                        0.4491826054788845, 0.8415303940479317, -0.22850929233526152,
                        -0.36063125374172383
                    ],
                    [
                        0.5765306691398362, -0.15480497348480204, 0.015095269645784396,
                        -0.6695513991502112
                    ],
                    [
                        0.3787262944967222, 0.7782315607909749, -0.7045012808532464,
                        0.6192710746019551
                    ],
                    [
                        -0.6502896649790717, -0.014460372491640103, 0.27629784276754604,
                        0.2494134066745465
                    ]
                ],
                [
                    -0.019999249505566644, -0.01999996391612983, -0.019999985673020828,
                    -0.019999967621183192
                ],
                [
                    [
                        0.44813081284526557, -0.19099300212925124, -0.08794462592418789,
                        0.27975131780264034
                    ],
                    [
                        0.530225140297488, -0.32343389254307037, 0.3927099083641699,
                        -0.19242356731074214
                    ],
                    [
                        0.7493445650813996, -0.48174331302813356, -0.7286421684859602,
                        0.12430857568629944
                    ],
                    [
                        0.8074167040510251, 0.15918053763024687, 0.5501586958081972,
                        0.22455338365140035
                    ]
                ],
                [
                    -0.019999982976596463, 0.019999902191771567, 0.019999964699140414,
                    0.019999895095645006
                ]
            ],
            "auto_encoder_weights": [
                [
                    [
                        -0.2945315598028575, 0.5366220007655782, -0.4231203482957011,
                        -0.15873411438600765
                    ],
                    [
                        0.18454184608138788, 0.624719735578607, -0.779029282678413,
                        0.05860840341330249
                    ],
                    [
                        0.06448827128382098, -0.09676812237017254, 0.5038438722570702,
                        -0.7566834782850967
                    ],
                    [
                        -0.06974295179195718, 0.6543274777590987, 0.24036070325317005,
                        -0.46178699128900946
                    ]
                ],
                [
                    0.01997965119498182, -0.01999469666896401, 0.01999000840053349,
                    0.019979985083563835
                ],
                [
                    [
                        -0.055863918517663605, 0.6516255886464127, 0.2919114811957571,
                        -0.5653540069077685
                    ],
                    [
                        0.7991732303348001, -0.8723736935920052, 0.36710371784954376,
                        0.7339510471151092
                    ],
                    [
                        0.49355168116136294, -0.783747081664224, -0.12784681918439061,
                        -0.8277847044388249
                    ],
                    [
                        0.42033100501286264, 0.3279792371293258, 0.6379250902359885,
                        -0.16505475558705834
                    ]
                ],
                [
                    0.019999112415058237, -0.01998337452835496, 0.019996984517948485,
                    -0.019999388157233927
                ],
                [
                    [
                        -0.8852501274963442, -0.2559642922405303, -0.8271171507260056,
                        -0.8676802485295607
                    ],
                    [
                        0.4467892857373747, 0.6412255812131104, -0.28730971704428376,
                        0.5501581310134898
                    ],
                    [
                        0.11803355327756121, -0.3981851485331705, 0.12584460240460502,
                        0.35284888376506607
                    ],
                    [
                        0.8312930481861035, 0.6335518605506313, -0.16591769133218892,
                        -0.22605438258681002
                    ]
                ],
                [
                    -0.01999896611726172, -0.019999195009517506, 0.019957968796135095,
                    -0.01994963230604818
                ],
                [
                    [
                        0.405568884829087, -0.036127359263499054, 0.6339616200424004,
                        0.5225807583903562
                    ],
                    [
                        0.25642622381216784, -0.6509709927265395, 0.8416234600834249,
                        0.8042499400462982
                    ],
                    [
                        -0.7109066748037338, -0.5845733767979556, -0.6496111966803522,
                        0.5401382811186696
                    ],
                    [
                        0.3266751116385176, 0.22281834004697168, 0.14785159397102116,
                        0.443794775816212
                    ]
                ],
                [
                    -0.019996988703320496, 0.01999083533467443, -0.019998797069422838,
                    -0.0199980222048858
                ]
            ],
            "discriminator_weights": [
                [
                    [
                        -0.21868725994123595, 0.8792307976737357, 0.4429795322859021,
                        -0.04419872958143146
                    ],
                    [
                        0.16669692646254583, -0.9061196425488042, 0.012373625191386944,
                        0.7971209664189499
                    ],
                    [
                        -0.7571126975474282, -0.4961119954842781, -0.0003904718745028086,
                        0.017887393030107744
                    ],
                    [
                        0.7003862213026645, 0.357285027378945, 0.33907404471205804,
                        -0.6320253524730466
                    ]
                ],
                [
                    -0.06737608655835235, 0.08832278535066024, 0.07396234466272422,
                    -0.0019345325943944496
                ],
                [
                    [-0.3081351068332218, 0.21907333903976978],
                    [0.9486333299625176, 0.1208504657886971],
                    [0.22658222981818013, 0.7938021422168897],
                    [-0.6569459143573958, -0.7312882978909424]
                ],
                [0.07234489482536775, 0.07218923455935997],
                [
                    [0.8605901266416983, -0.4849813855417477],
                    [1.239486453690488, -1.1639253846881195]
                ],
                [0.053388576849993645, 0.0523834174157674],
                [[0.7442693133620011], [0.32168325522571767]],
                [0.05304144813707064]
            ],
            "encoder_weights": [
                [
                    [
                        0.5447587536063314, -0.46416176708871026, 0.09256846315417275,
                        0.17757636144483233
                    ],
                    [
                        0.6281658327350461, 0.0659600322801443, 0.11905431414443689,
                        -0.4507819635542467
                    ],
                    [
                        0.42943343563340564, 0.4562962636764409, -0.6594219489899934,
                        0.05437382992057334
                    ],
                    [
                        0.8417366964268261, 0.36035404017288397, -0.3969824539835926,
                        0.6076399430150548
                    ]
                ],
                [
                    -0.01995465218286588, -0.01874224569789508, 0.01965115744627599,
                    0.01999397755754527
                ],
                [
                    [
                        0.496455966248076, 0.13625394117501213, -0.5046614545713468,
                        -0.005637840711561894
                    ],
                    [
                        0.8111733388749467, 0.4250734876170356, 0.6133875858042819,
                        -0.7960497319832142
                    ],
                    [
                        0.3815379459158736, 0.6567078044058046, 0.47221877134809903,
                        -0.6288707894424933
                    ],
                    [
                        -0.7822931290100066, 0.5544250271624567, -0.6694637937155099,
                        -0.17251318996844828
                    ]
                ],
                [
                    -0.019989742098691556, 0.019992327072587725, -0.01996426496765405,
                    -0.019961296437870465
                ],
                [
                    [
                        -0.41083527064316644, 0.6289294754172949, -0.6048389792263796,
                        0.39754702682936577
                    ],
                    [
                        -0.16703872761913938, -0.40412557629447143, -0.7363748252759942,
                        -0.10524442879888428
                    ],
                    [
                        0.45394413278091833, 0.8247650031879991, -0.11115010155662987,
                        -0.4153660435100729
                    ],
                    [
                        0.5341298302825372, 0.4492343505457466, 0.7077918737726376,
                        -0.6225537824191177
                    ]
                ],
                [
                    -0.019966359315186616, -0.019997786912860215, -0.019932327317553476,
                    0.019997849427891175
                ],
                [
                    [
                        -0.5896984425106584, 0.5519825125932076, -0.636605400050141,
                        0.49799293015083623
                    ],
                    [
                        0.47764903127263864, 0.6757933341323838, -0.6752090132187908,
                        0.3817711167142675
                    ],
                    [
                        0.021572992180341526, 0.49287195401567824, -0.13935951476189826,
                        -0.28124937898377395
                    ],
                    [
                        -0.19372296371226017, 0.28916988041352143, 0.6737406465109433,
                        0.2710100451475252
                    ]
                ],
                [
                    0.019996574927014187, -0.01999597056741485, 0.019998723976470546,
                    0.01999725980628171
                ]
            ],
            "latent_dim": 4
        }
    },
    "data": {
        "values": [
            [
                0.15739504666683765,
                0.14370186712002989,
                0.9145930429881003,
                0.7897758481796071,
                0.0
            ],
            [
                0.9919493740439245,
                0.8734120892044295,
                0.3831567496991568,
                0.10024123133190743,
                0.0
            ],
            [
                0.07189440292783926,
                0.2127028035152394,
                0.9245154152354086,
                0.9819309171669331,
                0.0
            ],
            [
                0.061153889576481206,
                0.8503885943070946,
                0.04165980226966316,
                0.9085932233033465,
                1.0
            ],
            [
                0.8471930605328605,
                0.043683801673328304,
                0.9133625955869635,
                0.07029889409103866,
                1.0
            ],
            [
                0.94839726895975,
                0.15158060011391167,
                0.9362821041130295,
                0.15762139256282937,
                1.0
            ]
        ]
    }
}